digraph Tree {
node [shape=box, style="filled, rounded", color="black", fontname=helvetica] ;
edge [fontname=helvetica] ;
0 [label="petal length (cm) <= 2.45\ngini = 0.67\nsamples = 93\nvalue = [50, 50, 50]\nclass = setosa", fillcolor="#ffffff"] ;
1 [label="gini = 0.0\nsamples = 31\nvalue = [50, 0, 0]\nclass = setosa", fillcolor="#e58139"] ;
0 -> 1 [labeldistance=2.5, labelangle=45, headlabel="True"] ;
2 [label="petal width (cm) <= 1.65\ngini = 0.5\nsamples = 62\nvalue = [0, 50, 50]\nclass = versicolor", fillcolor="#ffffff"] ;
0 -> 2 [labeldistance=2.5, labelangle=-45, headlabel="False"] ;
3 [label="petal width (cm) <= 1.45\ngini = 0.14\nsamples = 32\nvalue = [0, 49, 4]\nclass = versicolor", fillcolor="#49e78b"] ;
2 -> 3 ;
4 [label="gini = 0.0\nsamples = 24\nvalue = [0, 43, 0]\nclass = versicolor", fillcolor="#39e581"] ;
3 -> 4 ;
5 [label="sepal width (cm) <= 2.9\ngini = 0.48\nsamples = 8\nvalue = [0, 6, 4]\nclass = versicolor", fillcolor="#bdf6d5"] ;
3 -> 5 ;
6 [label="gini = 0.0\nsamples = 2\nvalue = [0, 0, 4]\nclass = virginica", fillcolor="#8139e5"] ;
5 -> 6 ;
7 [label="gini = 0.0\nsamples = 6\nvalue = [0, 6, 0]\nclass = versicolor", fillcolor="#39e581"] ;
5 -> 7 ;
8 [label="sepal length (cm) <= 5.95\ngini = 0.04\nsamples = 30\nvalue = [0, 1, 46]\nclass = virginica", fillcolor="#843de6"] ;
2 -> 8 ;
9 [label="sepal width (cm) <= 3.1\ngini = 0.2\nsamples = 5\nvalue = [0, 1, 8]\nclass = virginica", fillcolor="#9152e8"] ;
8 -> 9 ;
10 [label="gini = 0.0\nsamples = 4\nvalue = [0, 0, 8]\nclass = virginica", fillcolor="#8139e5"] ;
9 -> 10 ;
11 [label="gini = 0.0\nsamples = 1\nvalue = [0, 1, 0]\nclass = versicolor", fillcolor="#39e581"] ;
9 -> 11 ;
12 [label="gini = 0.0\nsamples = 25\nvalue = [0, 0, 38]\nclass = virginica", fillcolor="#8139e5"] ;
8 -> 12 ;
}